{
  "metadata": {
    "version": "1.0.0",
    "model_type": "router_agent",
    "trained_at": "2025-11-21T23:24:14.162823+00:00",
    "accuracy": 0.5454545454545454,
    "num_examples": 64,
    "vocabulary_size": 338,
    "num_features": 338
  },
  "tfidf": {
    "vocabulary": {
      "hello": 133,
      "there": 290,
      "hello there": 134,
      "hi": 138,
      "how": 139,
      "are": 14,
      "you": 335,
      "how are": 140,
      "are you": 16,
      "who": 329,
      "who are": 330,
      "help": 135,
      "me": 183,
      "help me": 136,
      "what": 322,
      "can": 43,
      "do": 80,
      "what can": 323,
      "can you": 44,
      "you do": 337,
      "good": 126,
      "morning": 194,
      "good morning": 127,
      "thanks": 269,
      "bye": 38,
      "explain": 92,
      "this": 291,
      "code": 50,
      "explain this": 94,
      "this code": 293,
      "does": 86,
      "the": 270,
      "auth": 19,
      "middleware": 187,
      "work": 332,
      "how does": 142,
      "does the": 87,
      "the auth": 271,
      "auth middleware": 21,
      "middleware work": 188,
      "where": 326,
      "is": 156,
      "user": 314,
      "model": 191,
      "defined": 70,
      "where is": 328,
      "is the": 159,
      "the user": 288,
      "user model": 316,
      "model defined": 192,
      "find": 102,
      "all": 4,
      "references": 234,
      "to": 298,
      "find all": 103,
      "all references": 7,
      "references to": 235,
      "to user": 305,
      "project": 220,
      "structure": 261,
      "what is": 324,
      "the project": 284,
      "project structure": 221,
      "show": 256,
      "main": 178,
      "function": 118,
      "show me": 257,
      "me the": 184,
      "the main": 281,
      "main function": 179,
      "list": 168,
      "controllers": 61,
      "list all": 169,
      "all controllers": 5,
      "run": 247,
      "tests": 268,
      "how do": 141,
      "do run": 81,
      "run tests": 248,
      "templates": 264,
      "stored": 260,
      "where are": 327,
      "are the": 15,
      "the templates": 286,
      "templates stored": 265,
      "implement": 144,
      "new": 198,
      "login": 174,
      "feature": 97,
      "implement new": 145,
      "new login": 201,
      "login feature": 175,
      "create": 62,
      "controller": 60,
      "create user": 64,
      "user controller": 315,
      "add": 1,
      "endpoint": 88,
      "for": 107,
      "search": 251,
      "add new": 3,
      "new endpoint": 199,
      "endpoint for": 89,
      "for search": 114,
      "fix": 105,
      "bug": 32,
      "in": 148,
      "payment": 212,
      "service": 255,
      "fix the": 106,
      "the bug": 272,
      "bug in": 33,
      "in the": 152,
      "the payment": 283,
      "payment service": 213,
      "refactor": 232,
      "logging": 170,
      "module": 193,
      "refactor the": 233,
      "the logging": 279,
      "logging module": 171,
      "write": 333,
      "test": 266,
      "write test": 334,
      "test for": 267,
      "for the": 116,
      "auth service": 22,
      "update": 310,
      "readme": 230,
      "update the": 311,
      "the readme": 285,
      "delete": 71,
      "old": 206,
      "migration": 189,
      "file": 100,
      "delete the": 72,
      "the old": 282,
      "old migration": 207,
      "migration file": 190,
      "change": 45,
      "button": 36,
      "color": 53,
      "red": 231,
      "change the": 46,
      "the button": 273,
      "button color": 37,
      "color to": 54,
      "to red": 302,
      "optimize": 210,
      "database": 67,
      "query": 227,
      "optimize the": 211,
      "the database": 276,
      "database query": 68,
      "research": 241,
      "best": 25,
      "practices": 218,
      "go": 123,
      "error": 90,
      "handling": 131,
      "research best": 242,
      "best practices": 26,
      "practices for": 219,
      "for go": 109,
      "go error": 125,
      "error handling": 91,
      "oauth2": 202,
      "how to": 143,
      "to implement": 301,
      "implement oauth2": 146,
      "oauth2 in": 203,
      "in go": 150,
      "difference": 78,
      "between": 27,
      "grpc": 129,
      "and": 10,
      "rest": 243,
      "the difference": 278,
      "difference between": 79,
      "between grpc": 28,
      "grpc and": 130,
      "and rest": 12,
      "libraries": 166,
      "pdf": 214,
      "generation": 120,
      "search for": 252,
      "for libraries": 110,
      "libraries for": 167,
      "for pdf": 112,
      "pdf generation": 215,
      "documentation": 84,
      "on": 208,
      "gin": 121,
      "framework": 117,
      "find documentation": 104,
      "documentation on": 85,
      "on gin": 209,
      "gin framework": 122,
      "compare": 55,
      "postgres": 216,
      "mysql": 197,
      "compare postgres": 56,
      "postgres and": 217,
      "and mysql": 11,
      "latest": 163,
      "features": 98,
      "of": 204,
      "22": 0,
      "latest features": 164,
      "features of": 99,
      "of go": 205,
      "go 22": 124,
      "deploy": 76,
      "aws": 23,
      "lambda": 162,
      "to deploy": 300,
      "deploy to": 77,
      "to aws": 299,
      "aws lambda": 24,
      "review": 244,
      "pull": 224,
      "request": 240,
      "review this": 246,
      "this pull": 295,
      "pull request": 225,
      "check": 48,
      "security": 253,
      "vulnerabilities": 321,
      "check for": 49,
      "for security": 115,
      "security vulnerabilities": 254,
      "analyze": 8,
      "quality": 226,
      "analyze the": 9,
      "the code": 274,
      "code quality": 51,
      "audit": 17,
      "dependencies": 73,
      "audit the": 18,
      "the dependencies": 277,
      "safe": 249,
      "is this": 160,
      "code safe": 52,
      "look": 176,
      "bugs": 34,
      "look for": 177,
      "for bugs": 108,
      "bugs in": 35,
      "in main": 151,
      "main go": 180,
      "my": 195,
      "changes": 47,
      "review my": 245,
      "my changes": 196,
      "critique": 65,
      "critique this": 66,
      "this function": 294,
      "memory": 185,
      "leaks": 165,
      "you check": 336,
      "for memory": 111,
      "memory leaks": 186,
      "called": 39,
      "utils": 317,
      "create new": 63,
      "new file": 200,
      "file called": 101,
      "called utils": 40,
      "utils go": 318,
      "remove": 236,
      "unused": 308,
      "import": 147,
      "remove the": 237,
      "the unused": 287,
      "unused import": 309,
      "rename": 238,
      "variable": 319,
      "total": 306,
      "rename the": 239,
      "the variable": 289,
      "variable to": 320,
      "to total": 303,
      "extract": 95,
      "block": 30,
      "into": 154,
      "extract this": 96,
      "this block": 292,
      "block into": 31,
      "into function": 155,
      "here": 137,
      "add error": 2,
      "handling here": 132,
      "map": 181,
      "slice": 258,
      "explain the": 93,
      "between map": 29,
      "map and": 182,
      "and slice": 13,
      "dependency": 74,
      "injection": 153,
      "is dependency": 157,
      "dependency injection": 75,
      "use": 312,
      "docker": 82,
      "compose": 57,
      "to use": 304,
      "use docker": 313,
      "docker compose": 83,
      "react": 228,
      "tutorials": 307,
      "for react": 113,
      "react tutorials": 229,
      "config": 58,
      "the config": 275,
      "config file": 59,
      "schema": 250,
      "database schema": 69,
      "public": 222,
      "functions": 119,
      "all public": 6,
      "public functions": 223,
      "calls": 41,
      "who calls": 331,
      "calls this": 42,
      "logic": 172,
      "the logic": 280,
      "logic in": 173,
      "in auth": 149,
      "auth go": 20,
      "greetings": 128,
      "status": 259,
      "system": 262,
      "system check": 263,
      "time": 296,
      "it": 161,
      "what time": 325,
      "time is": 297,
      "is it": 158
    },
    "idf_weights": [
      4.481240089335692,
      4.075774981227528,
      4.481240089335692,
      4.481240089335692,
      3.7880929087757464,
      4.481240089335692,
      4.481240089335692,
      4.481240089335692,
      4.481240089335692,
      4.481240089335692,
      3.7880929087757464,
      4.481240089335692,
      4.481240089335692,
      4.481240089335692,
      3.7880929087757464,
      4.481240089335692,
      4.075774981227528,
      4.481240089335692,
      4.481240089335692,
      3.7880929087757464,
      4.481240089335692,
      4.481240089335692,
      4.481240089335692,
      4.481240089335692,
      4.481240089335692,
      4.481240089335692,
      4.481240089335692,
      4.075774981227528,
      4.481240089335692,
      4.481240089335692,
      4.481240089335692,
      4.481240089335692,
      4.481240089335692,
      4.481240089335692,
      4.481240089335692,
      4.481240089335692,
      4.481240089335692,
      4.481240089335692,
      4.481240089335692,
      4.481240089335692,
      4.481240089335692,
      4.481240089335692,
      4.481240089335692,
      4.075774981227528,
      4.075774981227528,
      4.481240089335692,
      4.481240089335692,
      4.481240089335692,
      3.7880929087757464,
      4.075774981227528,
      3.7880929087757464,
      4.481240089335692,
      4.481240089335692,
      4.481240089335692,
      4.481240089335692,
      4.481240089335692,
      4.481240089335692,
      4.481240089335692,
      4.481240089335692,
      4.481240089335692,
      4.481240089335692,
      4.481240089335692,
      4.075774981227528,
      4.481240089335692,
      4.481240089335692,
      4.481240089335692,
      4.481240089335692,
      4.075774981227528,
      4.481240089335692,
      4.481240089335692,
      4.481240089335692,
      4.481240089335692,
      4.481240089335692,
      4.481240089335692,
      4.481240089335692,
      4.481240089335692,
      4.481240089335692,
      4.481240089335692,
      4.075774981227528,
      4.075774981227528,
      4.075774981227528,
      4.481240089335692,
      4.481240089335692,
      4.481240089335692,
      4.481240089335692,
      4.481240089335692,
      4.481240089335692,
      4.481240089335692,
      4.481240089335692,
      4.481240089335692,
      4.075774981227528,
      4.075774981227528,
      3.7880929087757464,
      4.075774981227528,
      4.481240089335692,
      4.481240089335692,
      4.481240089335692,
      4.481240089335692,
      4.481240089335692,
      4.481240089335692,
      3.7880929087757464,
      4.481240089335692,
      4.075774981227528,
      4.481240089335692,
      4.481240089335692,
      4.481240089335692,
      4.481240089335692,
      2.9771626925594177,
      4.481240089335692,
      4.481240089335692,
      4.481240089335692,
      4.481240089335692,
      4.481240089335692,
      4.481240089335692,
      4.481240089335692,
      4.481240089335692,
      4.481240089335692,
      4.481240089335692,
      3.5649493574615367,
      4.481240089335692,
      4.481240089335692,
      4.481240089335692,
      4.481240089335692,
      3.228477120840324,
      4.481240089335692,
      4.481240089335692,
      4.481240089335692,
      4.481240089335692,
      4.481240089335692,
      4.481240089335692,
      4.481240089335692,
      4.075774981227528,
      4.481240089335692,
      4.075774981227528,
      4.481240089335692,
      4.481240089335692,
      4.481240089335692,
      4.481240089335692,
      4.481240089335692,
      3.228477120840324,
      4.481240089335692,
      4.481240089335692,
      4.481240089335692,
      3.7880929087757464,
      4.075774981227528,
      4.481240089335692,
      4.481240089335692,
      4.481240089335692,
      3.5649493574615367,
      4.481240089335692,
      4.481240089335692,
      4.481240089335692,
      4.481240089335692,
      4.481240089335692,
      4.481240089335692,
      4.481240089335692,
      3.094945728215801,
      4.481240089335692,
      4.481240089335692,
      3.5649493574615367,
      4.481240089335692,
      4.481240089335692,
      4.481240089335692,
      4.481240089335692,
      4.481240089335692,
      4.481240089335692,
      4.481240089335692,
      4.481240089335692,
      4.075774981227528,
      4.075774981227528,
      4.481240089335692,
      4.481240089335692,
      4.481240089335692,
      4.481240089335692,
      4.481240089335692,
      4.481240089335692,
      4.481240089335692,
      4.481240089335692,
      4.075774981227528,
      4.481240089335692,
      4.481240089335692,
      4.481240089335692,
      4.481240089335692,
      3.7880929087757464,
      4.075774981227528,
      4.481240089335692,
      4.481240089335692,
      4.481240089335692,
      4.481240089335692,
      4.481240089335692,
      4.481240089335692,
      4.481240089335692,
      4.481240089335692,
      4.481240089335692,
      4.481240089335692,
      4.481240089335692,
      4.481240089335692,
      4.481240089335692,
      3.7880929087757464,
      4.481240089335692,
      4.481240089335692,
      4.481240089335692,
      4.481240089335692,
      4.481240089335692,
      4.481240089335692,
      4.481240089335692,
      4.481240089335692,
      4.481240089335692,
      4.481240089335692,
      4.481240089335692,
      4.481240089335692,
      4.481240089335692,
      4.481240089335692,
      4.481240089335692,
      4.481240089335692,
      4.481240089335692,
      4.481240089335692,
      4.481240089335692,
      4.481240089335692,
      4.481240089335692,
      4.481240089335692,
      4.481240089335692,
      4.481240089335692,
      4.481240089335692,
      4.481240089335692,
      4.481240089335692,
      4.481240089335692,
      4.481240089335692,
      4.481240089335692,
      4.481240089335692,
      4.481240089335692,
      4.481240089335692,
      4.481240089335692,
      4.481240089335692,
      4.481240089335692,
      4.481240089335692,
      4.481240089335692,
      4.481240089335692,
      4.481240089335692,
      4.481240089335692,
      4.481240089335692,
      4.481240089335692,
      4.481240089335692,
      4.481240089335692,
      4.075774981227528,
      4.481240089335692,
      4.481240089335692,
      4.481240089335692,
      4.481240089335692,
      4.481240089335692,
      4.481240089335692,
      3.7880929087757464,
      4.075774981227528,
      4.481240089335692,
      4.481240089335692,
      4.075774981227528,
      4.075774981227528,
      4.075774981227528,
      4.481240089335692,
      4.481240089335692,
      4.481240089335692,
      4.481240089335692,
      4.481240089335692,
      4.481240089335692,
      4.481240089335692,
      4.481240089335692,
      4.481240089335692,
      4.481240089335692,
      4.481240089335692,
      4.481240089335692,
      2.083344816537321,
      4.075774981227528,
      4.481240089335692,
      4.481240089335692,
      4.481240089335692,
      4.481240089335692,
      4.075774981227528,
      4.481240089335692,
      4.075774981227528,
      4.481240089335692,
      4.481240089335692,
      4.481240089335692,
      4.481240089335692,
      4.481240089335692,
      4.481240089335692,
      4.481240089335692,
      4.481240089335692,
      4.481240089335692,
      4.481240089335692,
      4.481240089335692,
      4.481240089335692,
      3.228477120840324,
      4.481240089335692,
      4.075774981227528,
      4.075774981227528,
      4.481240089335692,
      4.481240089335692,
      4.481240089335692,
      3.228477120840324,
      4.481240089335692,
      4.481240089335692,
      4.481240089335692,
      4.481240089335692,
      4.481240089335692,
      4.481240089335692,
      4.481240089335692,
      4.481240089335692,
      4.481240089335692,
      4.481240089335692,
      4.481240089335692,
      4.481240089335692,
      4.481240089335692,
      4.481240089335692,
      4.481240089335692,
      3.7880929087757464,
      4.481240089335692,
      4.481240089335692,
      4.481240089335692,
      4.481240089335692,
      4.481240089335692,
      4.481240089335692,
      4.481240089335692,
      3.3826278006675823,
      4.481240089335692,
      3.7880929087757464,
      4.481240089335692,
      3.7880929087757464,
      4.481240089335692,
      4.075774981227528,
      4.075774981227528,
      4.481240089335692,
      4.481240089335692,
      4.481240089335692,
      4.481240089335692,
      4.481240089335692,
      3.5649493574615367,
      4.481240089335692,
      4.481240089335692
    ]
  },
  "classifier": {
    "coefficients": [
      [
        -0.05959201445793823,
        -0.09444629360634652,
        -0.05678153573687263,
        -0.04706043766629604,
        -0.14924165383784915,
        -0.06858728009703531,
        -0.05710655203984259,
        -0.050856135955924656,
        -0.08232494225180298,
        -0.08232494225180298,
        -0.1340914129327644,
        -0.06759696178767201,
        -0.04495098969081328,
        -0.046079576869062694,
        0.4011321248272175,
        -0.05880993879367537,
        0.48508439499234934,
        -0.10117853056935601,
        -0.10117853056935601,
        -0.11385273991061638,
        -0.04478147550718044,
        -0.04794997691842652,
        -0.04195412014474831,
        -0.0501737452919028,
        -0.0501737452919028,
        -0.047044877606760994,
        -0.047044877606760994,
        -0.08279407001527349,
        -0.04495098969081328,
        -0.046079576869062694,
        -0.04829250480664296,
        -0.04829250480664296,
        -0.037589341095294354,
        -0.037589341095294354,
        -0.0653718441747035,
        -0.0653718441747035,
        -0.04285908471752519,
        -0.04285908471752519,
        0.5809929710269228,
        -0.04307496640838488,
        -0.04307496640838488,
        -0.06272754124215726,
        -0.06272754124215726,
        0.13631521194416424,
        0.13631521194416424,
        -0.04285908471752519,
        -0.04285908471752519,
        -0.09870432610486259,
        0.15677907674491084,
        -0.16112703069222042,
        -0.19692849729301382,
        -0.08232494225180298,
        -0.08326881434235453,
        -0.04285908471752519,
        -0.04285908471752519,
        -0.06759696178767201,
        -0.06759696178767201,
        -0.059300946296650454,
        -0.04997709929721651,
        -0.04997709929721651,
        -0.0675931657288395,
        -0.06858728009703531,
        -0.10065481768260873,
        -0.04307496640838488,
        -0.0675931657288395,
        -0.0982427889548856,
        -0.0982427889548856,
        -0.09898749032675874,
        -0.05485120813497116,
        -0.05398372805215918,
        -0.04394891476589963,
        -0.047983196919723574,
        -0.047983196919723574,
        -0.10117853056935601,
        -0.0787512203568171,
        -0.0787512203568171,
        -0.0501737452919028,
        -0.0501737452919028,
        -0.08279407001527349,
        -0.08279407001527349,
        0.15485123531331774,
        -0.06935640338894852,
        -0.059300946296650454,
        -0.059300946296650454,
        -0.06052923362146208,
        -0.06052923362146208,
        -0.04794997691842652,
        -0.04794997691842652,
        -0.04706043766629604,
        -0.04706043766629604,
        -0.09443214142969562,
        -0.09443214142969562,
        -0.13375526371081511,
        -0.08263989356972705,
        -0.0673688179925609,
        -0.04829250480664296,
        -0.04829250480664296,
        -0.05625188048804725,
        -0.05959201445793823,
        -0.05959201445793823,
        -0.11922027554598563,
        -0.04307496640838488,
        -0.10130715907827954,
        -0.050856135955924656,
        -0.06052923362146208,
        -0.037589341095294354,
        -0.037589341095294354,
        -0.35849225060941914,
        -0.0653718441747035,
        -0.047044877606760994,
        -0.04805794898327353,
        -0.08973642225684407,
        -0.04805794898327353,
        -0.0649009157791914,
        -0.04706043766629604,
        -0.08741980269160401,
        -0.04195412014474831,
        -0.06052923362146208,
        -0.20843217972486291,
        -0.05710655203984259,
        -0.04805794898327353,
        -0.06052923362146208,
        -0.06052923362146208,
        -0.22448603853707988,
        -0.05959201445793823,
        -0.047044877606760994,
        0.3354364482196743,
        0.3354364482196743,
        0.5809929710269228,
        -0.04495098969081328,
        -0.04495098969081328,
        -0.09443214142969562,
        -0.05678153573687263,
        0.8016797982407108,
        0.3094147877393403,
        0.3587728794903357,
        0.3587728794903357,
        -0.05678153573687263,
        0.5809929710269228,
        -0.002527249297487378,
        0.27500252012596654,
        -0.06935640338894852,
        -0.04794997691842652,
        -0.136269405374501,
        -0.0982110369216241,
        -0.05625188048804725,
        -0.05172935937320237,
        -0.055019805534402874,
        -0.15868546114253615,
        -0.04478147550718044,
        -0.05172935937320237,
        -0.0653718441747035,
        -0.037589341095294354,
        -0.0787512203568171,
        -0.04829250480664296,
        -0.04829250480664296,
        -0.08086150068481425,
        -0.0787512203568171,
        0.24108853045000658,
        -0.1560424195456775,
        -0.08326881434235453,
        0.24108853045000658,
        -0.0501737452919028,
        -0.05959201445793823,
        -0.05959201445793823,
        -0.08973642225684407,
        -0.04805794898327353,
        -0.04805794898327353,
        -0.11432098394755812,
        -0.11432098394755812,
        -0.055019805534402874,
        -0.055019805534402874,
        -0.04478147550718044,
        -0.04478147550718044,
        -0.05625188048804725,
        -0.05625188048804725,
        -0.0653718441747035,
        -0.0653718441747035,
        -0.10742700884982387,
        -0.05274218835961043,
        -0.0653718441747035,
        -0.046079576869062694,
        -0.046079576869062694,
        0.21306095957423174,
        -0.09706929583952621,
        -0.08973642225684407,
        -0.08973642225684407,
        -0.04794997691842652,
        -0.04794997691842652,
        -0.047983196919723574,
        -0.047983196919723574,
        -0.04394891476589963,
        -0.04394891476589963,
        -0.055019805534402874,
        0.3354364482196743,
        -0.09870432610486259,
        -0.09870432610486259,
        -0.06759696178767201,
        -0.12374445991114306,
        -0.04706043766629604,
        -0.04307496640838488,
        -0.05625188048804725,
        -0.05172935937320237,
        -0.05172935937320237,
        -0.05959201445793823,
        -0.05959201445793823,
        -0.047983196919723574,
        -0.047983196919723574,
        -0.06052923362146208,
        -0.06052923362146208,
        -0.05485120813497116,
        -0.05485120813497116,
        -0.037589341095294354,
        -0.037589341095294354,
        -0.04805794898327353,
        -0.04805794898327353,
        -0.06759696178767201,
        -0.06759696178767201,
        -0.047044877606760994,
        -0.047044877606760994,
        -0.05727263989849771,
        -0.05727263989849771,
        -0.05710655203984259,
        -0.05710655203984259,
        -0.07925619010244879,
        -0.07925619010244879,
        -0.08232494225180298,
        -0.05485120813497116,
        -0.0649009157791914,
        -0.0649009157791914,
        -0.06552382787457847,
        -0.04285908471752519,
        -0.055019805534402874,
        -0.055019805534402874,
        -0.050856135955924656,
        -0.050856135955924656,
        -0.055019805534402874,
        -0.055019805534402874,
        -0.04744724357876029,
        -0.04744724357876029,
        -0.07925619010244879,
        -0.047044877606760994,
        -0.047044877606760994,
        -0.04495098969081328,
        -0.1618585492284167,
        -0.09870432610486259,
        -0.07925619010244879,
        -0.06935640338894852,
        -0.06935640338894852,
        -0.08326881434235453,
        -0.05398372805215918,
        -0.13526791082677525,
        -0.10273828353949412,
        -0.08741980269160401,
        -0.08741980269160401,
        -0.07234632440558827,
        -0.09706929583952621,
        -0.09706929583952621,
        -0.046079576869062694,
        0.5809929710269228,
        -0.05880993879367537,
        -0.05727263989849771,
        0.3626228174522179,
        0.3626228174522179,
        -0.05880993879367537,
        -0.05880993879367537,
        -0.04195412014474831,
        -0.04195412014474831,
        -0.06935640338894852,
        0.5809929710269228,
        -0.543861464846963,
        -0.081769524108283,
        -0.037589341095294354,
        -0.04285908471752519,
        -0.08232494225180298,
        -0.04997709929721651,
        -0.09898749032675874,
        -0.10117853056935601,
        -0.08279407001527349,
        -0.055019805534402874,
        -0.04478147550718044,
        -0.05274218835961043,
        -0.047983196919723574,
        -0.037589341095294354,
        -0.05727263989849771,
        -0.06552382787457847,
        -0.05880993879367537,
        -0.055019805534402874,
        -0.04394891476589963,
        -0.04744724357876029,
        0.3094147877393403,
        -0.3163872483394034,
        -0.04829250480664296,
        -0.13700785516114017,
        -0.14640564474515794,
        -0.07925619010244879,
        0.24108853045000658,
        0.24108853045000658,
        -0.25398508951280235,
        -0.0501737452919028,
        -0.0501737452919028,
        -0.05172935937320237,
        -0.04285908471752519,
        -0.04744724357876029,
        -0.059300946296650454,
        -0.050856135955924656,
        -0.04744724357876029,
        -0.0649009157791914,
        -0.055019805534402874,
        -0.055019805534402874,
        -0.06552382787457847,
        -0.06552382787457847,
        -0.059300946296650454,
        -0.059300946296650454,
        -0.13727886028659175,
        -0.0675931657288395,
        -0.04394891476589963,
        -0.04307496640838488,
        -0.04307496640838488,
        -0.04744724357876029,
        -0.04744724357876029,
        -0.08741980269160401,
        0.2262458852829212,
        0.23961250603576345,
        -0.15298210586376093,
        0.24108853045000658,
        -0.12911113182906656,
        -0.05880993879367537,
        -0.0854275358099869,
        0.17791233835373857,
        0.25833890513990376,
        -0.06272754124215726,
        -0.04794997691842652,
        -0.04195412014474831,
        -0.04195412014474831,
        0.543518260865322,
        -0.08973642225684407,
        0.23961250603576345
      ],
      [
        -0.05610545961815815,
        -0.08610890706780117,
        -0.05159065624181714,
        -0.043084513064241006,
        0.5776478069378462,
        0.2574386297650665,
        0.2143740778732799,
        0.21153339086146825,
        -0.09438355446042512,
        -0.09438355446042512,
        -0.14381359826118048,
        -0.06107133250535754,
        -0.05407688146268764,
        -0.05498047015863335,
        0.0545677154488649,
        0.21070558527394623,
        -0.13292903243413753,
        -0.10923825191057408,
        -0.10923825191057408,
        0.292878259088251,
        0.20297281344610255,
        0.1943211053922449,
        -0.05082464590140629,
        -0.05015756964115282,
        -0.05015756964115282,
        -0.04443407502530677,
        -0.04443407502530677,
        -0.09918978148814293,
        -0.05407688146268764,
        -0.05498047015863335,
        -0.05383348343631058,
        -0.05383348343631058,
        -0.04419648333939371,
        -0.04419648333939371,
        -0.06848552699511361,
        -0.06848552699511361,
        -0.04541825321973375,
        -0.04541825321973375,
        -0.1441209549621796,
        -0.04264055837751434,
        -0.04264055837751434,
        0.25795868298304064,
        0.25795868298304064,
        -0.10547210080307182,
        -0.10547210080307182,
        -0.04541825321973375,
        -0.04541825321973375,
        -0.08974324817508625,
        -0.18001645997069227,
        -0.11730853467898403,
        0.09880677659941162,
        -0.09438355446042512,
        -0.11305860269160091,
        -0.04541825321973375,
        -0.04541825321973375,
        -0.06107133250535754,
        -0.06107133250535754,
        -0.05773547497311868,
        0.21139348280797324,
        0.21139348280797324,
        -0.07064607085568451,
        0.2574386297650665,
        -0.10303639169770946,
        -0.04264055837751434,
        -0.07064607085568451,
        -0.1331076463252535,
        -0.1331076463252535,
        0.12929543898269383,
        -0.06777177076093224,
        0.2099297424856131,
        0.18138601236800933,
        -0.05259804261388705,
        -0.05259804261388705,
        -0.10923825191057408,
        -0.07732717875242719,
        -0.07732717875242719,
        -0.05015756964115282,
        -0.05015756964115282,
        -0.09918978148814293,
        -0.09918978148814293,
        0.16603991740448878,
        0.242520142565689,
        -0.05773547497311868,
        -0.05773547497311868,
        -0.05844743016285965,
        -0.05844743016285965,
        0.1943211053922449,
        0.1943211053922449,
        -0.043084513064241006,
        -0.043084513064241006,
        -0.08733635990828122,
        -0.08733635990828122,
        0.39926354387980467,
        0.13460191334531238,
        0.3243286483385418,
        -0.05383348343631058,
        -0.05383348343631058,
        -0.05096690593033781,
        -0.05610545961815815,
        -0.05610545961815815,
        0.0981883307649932,
        -0.04264055837751434,
        0.13923465740597363,
        0.21153339086146825,
        -0.05844743016285965,
        -0.04419648333939371,
        -0.04419648333939371,
        -0.3212570089860921,
        -0.06848552699511361,
        -0.04443407502530677,
        -0.04415292240887853,
        -0.0560023583898762,
        -0.04415292240887853,
        -0.0594444520766833,
        -0.043084513064241006,
        -0.07297623116571418,
        -0.05082464590140629,
        -0.05844743016285965,
        0.22279049327003503,
        0.2143740778732799,
        -0.04415292240887853,
        -0.05844743016285965,
        -0.05844743016285965,
        -0.04559348601491512,
        -0.05610545961815815,
        -0.04443407502530677,
        -0.08320827214328032,
        -0.08320827214328032,
        -0.1441209549621796,
        -0.05407688146268764,
        -0.05407688146268764,
        -0.08733635990828122,
        -0.05159065624181714,
        -0.19895706916798483,
        -0.07678908644192793,
        -0.10279397184525295,
        -0.10279397184525295,
        -0.05159065624181714,
        -0.1441209549621796,
        0.14441167985535786,
        -0.07390713954410721,
        0.242520142565689,
        0.1943211053922449,
        -0.1373527312776902,
        -0.09600838624889821,
        -0.05096690593033781,
        -0.05459255977927583,
        -0.057873280790258094,
        0.02839893134333789,
        0.20297281344610255,
        -0.05459255977927583,
        -0.06848552699511361,
        -0.04419648333939371,
        -0.07732717875242719,
        -0.05383348343631058,
        -0.05383348343631058,
        0.21824031171625638,
        -0.07732717875242719,
        -0.0633971490755343,
        0.4532739295187917,
        -0.11305860269160091,
        -0.0633971490755343,
        -0.05015756964115282,
        -0.05610545961815815,
        -0.05610545961815815,
        -0.0560023583898762,
        -0.04415292240887853,
        -0.04415292240887853,
        0.4291228301277336,
        0.4291228301277336,
        -0.057873280790258094,
        -0.057873280790258094,
        0.20297281344610255,
        0.20297281344610255,
        -0.05096690593033781,
        -0.05096690593033781,
        -0.06848552699511361,
        -0.06848552699511361,
        0.12783363138312687,
        0.20903626798496572,
        -0.06848552699511361,
        -0.05498047015863335,
        -0.05498047015863335,
        0.26726732636351913,
        0.3810577316587907,
        -0.0560023583898762,
        -0.0560023583898762,
        0.1943211053922449,
        0.1943211053922449,
        -0.05259804261388705,
        -0.05259804261388705,
        0.18138601236800933,
        0.18138601236800933,
        -0.057873280790258094,
        -0.08320827214328032,
        -0.08974324817508625,
        -0.08974324817508625,
        -0.06107133250535754,
        -0.11554879895902227,
        -0.043084513064241006,
        -0.04264055837751434,
        -0.05096690593033781,
        -0.05459255977927583,
        -0.05459255977927583,
        -0.05610545961815815,
        -0.05610545961815815,
        -0.05259804261388705,
        -0.05259804261388705,
        -0.05844743016285965,
        -0.05844743016285965,
        -0.06777177076093224,
        -0.06777177076093224,
        -0.04419648333939371,
        -0.04419648333939371,
        -0.04415292240887853,
        -0.04415292240887853,
        -0.06107133250535754,
        -0.06107133250535754,
        -0.04443407502530677,
        -0.04443407502530677,
        0.23107527111385195,
        0.23107527111385195,
        0.2143740778732799,
        0.2143740778732799,
        -0.080565687429583,
        -0.080565687429583,
        -0.09438355446042512,
        -0.06777177076093224,
        -0.0594444520766833,
        -0.0594444520766833,
        -0.07118016380621789,
        -0.04541825321973375,
        -0.057873280790258094,
        -0.057873280790258094,
        0.21153339086146825,
        0.21153339086146825,
        -0.057873280790258094,
        -0.057873280790258094,
        -0.0512672395143577,
        -0.0512672395143577,
        -0.080565687429583,
        -0.04443407502530677,
        -0.04443407502530677,
        -0.05407688146268764,
        -0.15489928791561391,
        -0.08974324817508625,
        -0.080565687429583,
        0.242520142565689,
        0.242520142565689,
        -0.11305860269160091,
        0.2099297424856131,
        -0.12399349443372927,
        -0.09422382613552525,
        -0.07297623116571418,
        -0.07297623116571418,
        -0.08642356435427048,
        0.3810577316587907,
        0.3810577316587907,
        -0.05498047015863335,
        -0.1441209549621796,
        0.21070558527394623,
        0.23107527111385195,
        -0.08397737445788786,
        -0.08397737445788786,
        0.21070558527394623,
        0.21070558527394623,
        -0.05082464590140629,
        -0.05082464590140629,
        0.242520142565689,
        -0.1441209549621796,
        0.3695711848287686,
        0.13051281962761122,
        -0.04419648333939371,
        -0.04541825321973375,
        -0.09438355446042512,
        0.21139348280797324,
        0.12929543898269383,
        -0.10923825191057408,
        -0.09918978148814293,
        -0.057873280790258094,
        0.20297281344610255,
        0.20903626798496572,
        -0.05259804261388705,
        -0.04419648333939371,
        0.23107527111385195,
        -0.07118016380621789,
        0.21070558527394623,
        -0.057873280790258094,
        0.18138601236800933,
        -0.0512672395143577,
        -0.07678908644192793,
        0.14532909705112415,
        -0.05383348343631058,
        0.1921542138257201,
        0.11355444507450282,
        -0.080565687429583,
        -0.0633971490755343,
        -0.0633971490755343,
        -0.07045590160286738,
        -0.05015756964115282,
        -0.05015756964115282,
        -0.05459255977927583,
        -0.04541825321973375,
        -0.0512672395143577,
        -0.05773547497311868,
        0.21153339086146825,
        -0.0512672395143577,
        -0.0594444520766833,
        -0.057873280790258094,
        -0.057873280790258094,
        -0.07118016380621789,
        -0.07118016380621789,
        -0.05773547497311868,
        -0.05773547497311868,
        0.272424887021322,
        -0.07064607085568451,
        0.18138601236800933,
        -0.04264055837751434,
        -0.04264055837751434,
        -0.0512672395143577,
        -0.0512672395143577,
        -0.07297623116571418,
        -0.017880866109697725,
        -0.05996228848148538,
        0.08425431346852225,
        -0.0633971490755343,
        0.5101394944771249,
        0.21070558527394623,
        0.35724058690521215,
        0.16890938497169206,
        -0.07224590176070372,
        0.25795868298304064,
        0.1943211053922449,
        -0.05082464590140629,
        -0.05082464590140629,
        -0.20852180767254372,
        -0.0560023583898762,
        -0.05996228848148538
      ],
      [
        -0.05982839305967902,
        0.37733453518364996,
        0.22072515784281774,
        0.19414726616096123,
        -0.15222070889297534,
        -0.0669562147347389,
        -0.05576681028413281,
        -0.057351107148798805,
        -0.09580425952007997,
        -0.09580425952007997,
        -0.13648906013217196,
        -0.06600084120024112,
        -0.04414663296724985,
        -0.05131642409199278,
        -0.157814744215547,
        -0.05783255788479927,
        -0.1171999557917351,
        -0.12142104608231225,
        -0.12142104608231225,
        0.05847560772452088,
        -0.056638655303953074,
        -0.0566541908557985,
        0.18246835053461108,
        -0.05284143865630147,
        -0.05284143865630147,
        -0.05890051861151056,
        -0.05890051861151056,
        -0.08682550629668133,
        -0.04414663296724985,
        -0.05131642409199278,
        0.20269596236463705,
        0.20269596236463705,
        0.15777371735507323,
        0.15777371735507323,
        -0.07136138822642592,
        -0.07136138822642592,
        0.1743589650861339,
        0.1743589650861339,
        -0.15526671374595727,
        0.1687325930661635,
        0.1687325930661635,
        -0.06114786440014669,
        -0.06114786440014669,
        -0.10847978371354235,
        -0.10847978371354235,
        0.1743589650861339,
        0.1743589650861339,
        -0.09649166149118449,
        -0.19997286776078738,
        -0.13336718425613714,
        -0.20746011237122308,
        -0.09580425952007997,
        -0.0804851501960905,
        0.1743589650861339,
        0.1743589650861339,
        -0.06600084120024112,
        -0.06600084120024112,
        -0.058703463155292776,
        -0.06162708348488228,
        -0.06162708348488228,
        0.2578637376797332,
        -0.0669562147347389,
        0.3879976562905691,
        0.1687325930661635,
        0.2578637376797332,
        -0.10823490758629413,
        -0.10823490758629413,
        0.1464358549452729,
        0.2259445721129146,
        -0.06494102635306827,
        -0.05102982001064697,
        0.1898434958922703,
        0.1898434958922703,
        -0.12142104608231225,
        -0.06483237501151932,
        -0.06483237501151932,
        -0.05284143865630147,
        -0.05284143865630147,
        -0.08682550629668133,
        -0.08682550629668133,
        -0.10400760612619413,
        -0.05853343293518926,
        -0.058703463155292776,
        -0.058703463155292776,
        -0.05908149643182562,
        -0.05908149643182562,
        -0.0566541908557985,
        -0.0566541908557985,
        0.19414726616096123,
        0.19414726616096123,
        0.14718265542047917,
        0.14718265542047917,
        -0.14969556797022093,
        -0.09818724346984363,
        -0.06913186026964682,
        0.20269596236463705,
        0.20269596236463705,
        0.21071930203226738,
        -0.05982839305967902,
        -0.05982839305967902,
        0.2510176646369162,
        0.1687325930661635,
        -0.1058977165277124,
        -0.057351107148798805,
        -0.05908149643182562,
        0.15777371735507323,
        0.15777371735507323,
        -0.05445467102769879,
        -0.07136138822642592,
        -0.05890051861151056,
        -0.05478460828932143,
        -0.06345051044397204,
        -0.05478460828932143,
        -0.07211515367189739,
        0.19414726616096123,
        -0.08318427077999621,
        0.18246835053461108,
        -0.05908149643182562,
        -0.018899995486013954,
        -0.05576681028413281,
        -0.05478460828932143,
        -0.05908149643182562,
        -0.05908149643182562,
        -0.09808362241273733,
        -0.05982839305967902,
        -0.05890051861151056,
        -0.08964327897741699,
        -0.08964327897741699,
        -0.15526671374595727,
        -0.04414663296724985,
        -0.04414663296724985,
        0.14718265542047917,
        0.22072515784281774,
        -0.2136457156382769,
        -0.08245828808547365,
        -0.09044824301257752,
        -0.09044824301257752,
        0.22072515784281774,
        -0.15526671374595727,
        -0.2516691570178933,
        -0.0644459744429524,
        -0.05853343293518926,
        -0.0566541908557985,
        -0.14344451540664954,
        0.13876732525529473,
        0.21071930203226738,
        -0.05814716449080152,
        0.21590516725192857,
        -0.02257188976769927,
        -0.056638655303953074,
        -0.05814716449080152,
        -0.07136138822642592,
        0.15777371735507323,
        -0.06483237501151932,
        0.20269596236463705,
        0.20269596236463705,
        -0.28734148458297576,
        -0.06483237501151932,
        -0.057220797431749154,
        -0.1698528536705704,
        -0.0804851501960905,
        -0.057220797431749154,
        -0.05284143865630147,
        -0.05982839305967902,
        -0.05982839305967902,
        -0.06345051044397204,
        -0.05478460828932143,
        -0.05478460828932143,
        -0.1116189771181456,
        -0.1116189771181456,
        0.21590516725192857,
        0.21590516725192857,
        -0.056638655303953074,
        -0.056638655303953074,
        0.21071930203226738,
        0.21071930203226738,
        -0.07136138822642592,
        -0.07136138822642592,
        -0.11681176143027958,
        -0.057071008222906845,
        -0.07136138822642592,
        -0.05131642409199278,
        -0.05131642409199278,
        -0.1795974451011909,
        -0.11097231748793605,
        -0.06345051044397204,
        -0.06345051044397204,
        -0.0566541908557985,
        -0.0566541908557985,
        0.1898434958922703,
        0.1898434958922703,
        -0.05102982001064697,
        -0.05102982001064697,
        0.21590516725192857,
        -0.08964327897741699,
        -0.09649166149118449,
        -0.09649166149118449,
        -0.06600084120024112,
        0.48487625566353576,
        0.19414726616096123,
        0.1687325930661635,
        0.21071930203226738,
        -0.05814716449080152,
        -0.05814716449080152,
        -0.05982839305967902,
        -0.05982839305967902,
        0.1898434958922703,
        0.1898434958922703,
        -0.05908149643182562,
        -0.05908149643182562,
        0.2259445721129146,
        0.2259445721129146,
        0.15777371735507323,
        0.15777371735507323,
        -0.05478460828932143,
        -0.05478460828932143,
        -0.06600084120024112,
        -0.06600084120024112,
        -0.05890051861151056,
        -0.05890051861151056,
        -0.056706205425564586,
        -0.056706205425564586,
        -0.05576681028413281,
        -0.05576681028413281,
        -0.08082092586220437,
        -0.08082092586220437,
        -0.09580425952007997,
        0.2259445721129146,
        -0.07211515367189739,
        -0.07211515367189739,
        0.2608835113560856,
        0.1743589650861339,
        0.21590516725192857,
        0.21590516725192857,
        -0.057351107148798805,
        -0.057351107148798805,
        0.21590516725192857,
        0.21590516725192857,
        0.19553432620924055,
        0.19553432620924055,
        -0.08082092586220437,
        -0.05890051861151056,
        -0.05890051861151056,
        -0.04414663296724985,
        -0.16126924533936207,
        -0.09649166149118449,
        -0.08082092586220437,
        -0.05853343293518926,
        -0.05853343293518926,
        -0.0804851501960905,
        -0.06494102635306827,
        0.05684582586818607,
        -0.11541780056732853,
        -0.08318427077999621,
        -0.08318427077999621,
        0.30945677540599437,
        -0.11097231748793605,
        -0.11097231748793605,
        -0.05131642409199278,
        -0.15526671374595727,
        -0.05783255788479927,
        -0.056706205425564586,
        -0.08992922429792367,
        -0.08992922429792367,
        -0.05783255788479927,
        -0.05783255788479927,
        0.18246835053461108,
        0.18246835053461108,
        -0.05853343293518926,
        -0.15526671374595727,
        0.558443216054883,
        0.11443042418624047,
        0.15777371735507323,
        0.1743589650861339,
        -0.09580425952007997,
        -0.06162708348488228,
        0.1464358549452729,
        -0.12142104608231225,
        -0.08682550629668133,
        0.21590516725192857,
        -0.056638655303953074,
        -0.057071008222906845,
        0.1898434958922703,
        0.15777371735507323,
        -0.056706205425564586,
        0.2608835113560856,
        -0.05783255788479927,
        0.21590516725192857,
        -0.05102982001064697,
        0.19553432620924055,
        -0.08245828808547365,
        -0.14201710231164102,
        0.20269596236463705,
        -0.13607957972917004,
        -0.15405692409924948,
        -0.08082092586220437,
        -0.057220797431749154,
        -0.057220797431749154,
        0.06484610412342359,
        -0.05284143865630147,
        -0.05284143865630147,
        -0.05814716449080152,
        0.1743589650861339,
        0.19553432620924055,
        -0.058703463155292776,
        -0.057351107148798805,
        0.19553432620924055,
        -0.07211515367189739,
        0.21590516725192857,
        0.21590516725192857,
        0.2608835113560856,
        0.2608835113560856,
        -0.058703463155292776,
        -0.058703463155292776,
        0.12636117753729006,
        0.2578637376797332,
        -0.05102982001064697,
        0.1687325930661635,
        0.1687325930661635,
        0.19553432620924055,
        0.19553432620924055,
        -0.08318427077999621,
        -0.2103948492616603,
        -0.055821028808958444,
        -0.14005743264672846,
        -0.057220797431749154,
        -0.14411857137776302,
        -0.05783255788479927,
        -0.10246364389677447,
        -0.11420026058910748,
        -0.06441323461085949,
        -0.06114786440014669,
        -0.0566541908557985,
        0.18246835053461108,
        0.18246835053461108,
        -0.19739481351326177,
        -0.06345051044397204,
        -0.055821028808958444
      ],
      [
        0.2295189162325883,
        -0.1096978055949929,
        -0.06383800413888796,
        -0.056772727908047174,
        -0.14730058264063242,
        -0.06272698103529899,
        -0.05225096634213999,
        -0.059275771316339806,
        -0.07816392972906258,
        -0.07816392972906258,
        0.5315277298475862,
        0.25281206293507863,
        0.18184547254245575,
        0.19412941060515543,
        -0.15304417670249107,
        -0.0476008121014118,
        -0.12137306508252874,
        -0.09664309474446382,
        -0.09664309474446382,
        -0.12593846400858966,
        -0.055652971505504405,
        -0.04804006207841828,
        -0.04528971506968539,
        0.19472297524319396,
        0.19472297524319396,
        0.19859335462434288,
        0.19859335462434288,
        0.34195646556624043,
        0.18184547254245575,
        0.19412941060515543,
        -0.044487965952775294,
        -0.044487965952775294,
        -0.037690304169441025,
        -0.037690304169441025,
        -0.07947363042450178,
        -0.07947363042450178,
        -0.04683281035346352,
        -0.04683281035346352,
        -0.1453296886109696,
        -0.04402711287446397,
        -0.04402711287446397,
        -0.05244275685533021,
        -0.05244275685533021,
        -0.11124917004382368,
        -0.11124917004382368,
        -0.04683281035346352,
        -0.04683281035346352,
        -0.09068732916843669,
        -0.19736078819494685,
        -0.13593630397694784,
        -0.19052532057561714,
        -0.07816392972906258,
        -0.08032879812457824,
        -0.04683281035346352,
        -0.04683281035346352,
        0.25281206293507863,
        0.25281206293507863,
        0.22443988884756436,
        -0.05191773419200403,
        -0.05191773419200403,
        -0.06156116625112664,
        -0.06272698103529899,
        -0.09603459261089212,
        -0.04402711287446397,
        -0.06156116625112664,
        -0.091217324662195,
        -0.091217324662195,
        -0.0895695582381176,
        -0.05220936141726006,
        -0.04627073059210144,
        -0.044846853205307756,
        -0.045211897014509776,
        -0.045211897014509776,
        -0.09664309474446382,
        0.2828782189367918,
        0.2828782189367918,
        0.19472297524319396,
        0.19472297524319396,
        0.34195646556624043,
        0.34195646556624043,
        -0.11056862618906015,
        -0.06311790679186402,
        0.22443988884756436,
        0.22443988884756436,
        0.23010217393171645,
        0.23010217393171645,
        -0.04804006207841828,
        -0.04804006207841828,
        -0.056772727908047174,
        -0.056772727908047174,
        0.12256261105094758,
        0.12256261105094758,
        0.06050938701300698,
        0.12594701348739887,
        -0.06689501346047645,
        -0.044487965952775294,
        -0.044487965952775294,
        -0.05527250567632197,
        0.2295189162325883,
        0.2295189162325883,
        -0.11932296654926425,
        -0.04402711287446397,
        0.15536993422195014,
        -0.059275771316339806,
        0.23010217393171645,
        -0.037690304169441025,
        -0.037690304169441025,
        0.35321424642968846,
        -0.07947363042450178,
        0.19859335462434288,
        0.2007865140900134,
        -0.06386615232027609,
        0.2007865140900134,
        0.2624890121425286,
        -0.056772727908047174,
        -0.08559332907488072,
        -0.04528971506968539,
        0.23010217393171645,
        -0.18555149676093308,
        -0.05225096634213999,
        0.2007865140900134,
        0.23010217393171645,
        0.23010217393171645,
        0.33258647217532017,
        0.2295189162325883,
        0.19859335462434288,
        -0.08390613484078778,
        -0.08390613484078778,
        -0.1453296886109696,
        0.18184547254245575,
        0.18184547254245575,
        0.12256261105094758,
        -0.06383800413888796,
        -0.20052863224412049,
        -0.07739564389377912,
        -0.08555912992495458,
        -0.08555912992495458,
        -0.06383800413888796,
        -0.1453296886109696,
        0.32220005147548614,
        -0.07346305735516093,
        -0.06311790679186402,
        -0.04804006207841828,
        0.5341136670475601,
        0.14316808244526472,
        -0.05527250567632197,
        0.21268319530517188,
        -0.052100431410892954,
        0.03171472611488491,
        -0.055652971505504405,
        0.21268319530517188,
        -0.07947363042450178,
        -0.037690304169441025,
        0.2828782189367918,
        -0.044487965952775294,
        -0.044487965952775294,
        0.10592673946751571,
        0.2828782189367918,
        -0.06602501595503311,
        0.013404043820301154,
        -0.08032879812457824,
        -0.06602501595503311,
        0.19472297524319396,
        0.2295189162325883,
        0.2295189162325883,
        -0.06386615232027609,
        0.2007865140900134,
        0.2007865140900134,
        -0.10457467843088288,
        -0.10457467843088288,
        -0.052100431410892954,
        -0.052100431410892954,
        -0.055652971505504405,
        -0.055652971505504405,
        -0.05527250567632197,
        -0.05527250567632197,
        -0.07947363042450178,
        -0.07947363042450178,
        -0.11329788545904797,
        -0.045095323625836216,
        -0.07947363042450178,
        0.19412941060515543,
        0.19412941060515543,
        -0.14955883239339815,
        -0.08309920256251022,
        -0.06386615232027609,
        -0.06386615232027609,
        -0.04804006207841828,
        -0.04804006207841828,
        -0.045211897014509776,
        -0.045211897014509776,
        -0.044846853205307756,
        -0.044846853205307756,
        -0.052100431410892954,
        -0.08390613484078778,
        -0.09068732916843669,
        -0.09068732916843669,
        0.25281206293507863,
        -0.13193146028565952,
        -0.056772727908047174,
        -0.04402711287446397,
        -0.05527250567632197,
        0.21268319530517188,
        0.21268319530517188,
        0.2295189162325883,
        0.2295189162325883,
        -0.045211897014509776,
        -0.045211897014509776,
        0.23010217393171645,
        0.23010217393171645,
        -0.05220936141726006,
        -0.05220936141726006,
        -0.037690304169441025,
        -0.037690304169441025,
        0.2007865140900134,
        0.2007865140900134,
        0.25281206293507863,
        0.25281206293507863,
        0.19859335462434288,
        0.19859335462434288,
        -0.06823163077887247,
        -0.06823163077887247,
        -0.05225096634213999,
        -0.05225096634213999,
        -0.07304302977797586,
        -0.07304302977797586,
        -0.07816392972906258,
        -0.05220936141726006,
        0.2624890121425286,
        0.2624890121425286,
        -0.06252576013089624,
        -0.04683281035346352,
        -0.052100431410892954,
        -0.052100431410892954,
        -0.059275771316339806,
        -0.059275771316339806,
        -0.052100431410892954,
        -0.052100431410892954,
        -0.05300925985780113,
        -0.05300925985780113,
        -0.07304302977797586,
        0.19859335462434288,
        0.19859335462434288,
        0.18184547254245575,
        -0.1489159445505445,
        -0.09068732916843669,
        -0.07304302977797586,
        -0.06311790679186402,
        -0.06311790679186402,
        -0.08032879812457824,
        -0.04627073059210144,
        0.3436259466202333,
        0.4213580976674526,
        -0.08559332907488072,
        -0.08559332907488072,
        -0.07547194071602333,
        -0.08309920256251022,
        -0.08309920256251022,
        0.19412941060515543,
        -0.1453296886109696,
        -0.0476008121014118,
        -0.06823163077887247,
        -0.08401448490413273,
        -0.08401448490413273,
        -0.0476008121014118,
        -0.0476008121014118,
        -0.04528971506968539,
        -0.04528971506968539,
        -0.06311790679186402,
        -0.1453296886109696,
        -0.3213174674676214,
        -0.08488524674431613,
        -0.037690304169441025,
        -0.04683281035346352,
        -0.07816392972906258,
        -0.05191773419200403,
        -0.0895695582381176,
        -0.09664309474446382,
        0.34195646556624043,
        -0.052100431410892954,
        -0.055652971505504405,
        -0.045095323625836216,
        -0.045211897014509776,
        -0.037690304169441025,
        -0.06823163077887247,
        -0.06252576013089624,
        -0.0476008121014118,
        -0.052100431410892954,
        -0.044846853205307756,
        -0.05300925985780113,
        -0.07739564389377912,
        -0.2942395627377374,
        -0.044487965952775294,
        -0.13390291882090924,
        -0.13066163704186537,
        -0.07304302977797586,
        -0.06602501595503311,
        -0.06602501595503311,
        0.4808604009783278,
        0.19472297524319396,
        0.19472297524319396,
        0.21268319530517188,
        -0.04683281035346352,
        -0.05300925985780113,
        0.22443988884756436,
        -0.059275771316339806,
        -0.05300925985780113,
        0.2624890121425286,
        -0.052100431410892954,
        -0.052100431410892954,
        -0.06252576013089624,
        -0.06252576013089624,
        0.22443988884756436,
        0.22443988884756436,
        -0.14005623006431478,
        -0.06156116625112664,
        -0.044846853205307756,
        -0.04402711287446397,
        -0.04402711287446397,
        -0.05300925985780113,
        -0.05300925985780113,
        -0.08559332907488072,
        0.2053296551623768,
        -0.05845027658021221,
        0.33516364523723285,
        -0.06602501595503311,
        -0.12203531504931296,
        -0.0476008121014118,
        -0.08800927344226117,
        -0.10225469312138818,
        -0.05998440908214651,
        -0.05244275685533021,
        -0.04804006207841828,
        -0.04528971506968539,
        -0.04528971506968539,
        -0.2034671912616714,
        -0.06386615232027609,
        -0.05845027658021221
      ],
      [
        -0.05399304909681294,
        -0.08708152891450927,
        -0.04851496172524,
        -0.047229587522376965,
        -0.12888486156638937,
        -0.059168153897993334,
        -0.049249749207164586,
        -0.044050376440405,
        0.3506766859613707,
        0.3506766859613707,
        -0.11713365852146938,
        -0.05814292744180794,
        -0.038670968421705025,
        -0.04175293948546659,
        -0.1448409193580443,
        -0.04646227649405976,
        -0.11358234168394796,
        0.4284809233067062,
        0.4284809233067062,
        -0.11156266289356566,
        -0.04589971112946458,
        -0.0416768755396016,
        -0.044399869418771054,
        -0.04155022165383688,
        -0.04155022165383688,
        -0.04821388338076458,
        -0.04821388338076458,
        -0.0731471077661427,
        -0.038670968421705025,
        -0.04175293948546659,
        -0.05608200816890823,
        -0.05608200816890823,
        -0.03829758875094417,
        -0.03829758875094417,
        0.28469238982074474,
        0.28469238982074474,
        -0.0392488167954115,
        -0.0392488167954115,
        -0.13627561370781624,
        -0.03898995540580036,
        -0.03898995540580036,
        -0.08164052048540647,
        -0.08164052048540647,
        0.1888858426162735,
        0.1888858426162735,
        -0.0392488167954115,
        -0.0392488167954115,
        0.37562656493957003,
        0.4205710391815157,
        0.5477390536042894,
        0.49610715364044267,
        0.3506766859613707,
        0.3571413653546242,
        -0.0392488167954115,
        -0.0392488167954115,
        -0.05814292744180794,
        -0.05814292744180794,
        -0.04870000442250249,
        -0.04787156583387045,
        -0.04787156583387045,
        -0.0580633348440825,
        -0.059168153897993334,
        -0.08827185429935885,
        -0.03898995540580036,
        -0.0580633348440825,
        0.43080266752862817,
        0.43080266752862817,
        -0.08717424536309033,
        -0.051112231799751114,
        -0.044734257488284176,
        -0.04156042438615497,
        -0.044050359344149935,
        -0.044050359344149935,
        0.4284809233067062,
        -0.061967444816028165,
        -0.061967444816028165,
        -0.04155022165383688,
        -0.04155022165383688,
        -0.0731471077661427,
        -0.0731471077661427,
        -0.10631492040255233,
        -0.05151239944968716,
        -0.04870000442250249,
        -0.04870000442250249,
        -0.052044013715569076,
        -0.052044013715569076,
        -0.0416768755396016,
        -0.0416768755396016,
        -0.047229587522376965,
        -0.047229587522376965,
        -0.0879767651334499,
        -0.0879767651334499,
        -0.17632209921177558,
        -0.07972178979314047,
        -0.1209329566158576,
        -0.05608200816890823,
        -0.05608200816890823,
        -0.04822800993756043,
        -0.05399304909681294,
        -0.05399304909681294,
        -0.11066275330665952,
        -0.03898995540580036,
        -0.08739971602193185,
        -0.044050376440405,
        -0.052044013715569076,
        -0.03829758875094417,
        -0.03829758875094417,
        0.3809896841935215,
        0.28469238982074474,
        -0.04821388338076458,
        -0.053791034408539946,
        0.27305544341096843,
        -0.053791034408539946,
        -0.0660284906147566,
        -0.047229587522376965,
        0.32917363371219516,
        -0.044399869418771054,
        -0.052044013715569076,
        0.19009317870177497,
        -0.049249749207164586,
        -0.053791034408539946,
        -0.052044013715569076,
        -0.052044013715569076,
        0.03557667478941209,
        -0.05399304909681294,
        -0.04821388338076458,
        -0.07867876225818915,
        -0.07867876225818915,
        -0.13627561370781624,
        -0.038670968421705025,
        -0.038670968421705025,
        -0.0879767651334499,
        -0.04851496172524,
        -0.18854838119032832,
        -0.07277176931815951,
        -0.07997153470755063,
        -0.07997153470755063,
        -0.04851496172524,
        -0.13627561370781624,
        -0.21241532501546329,
        -0.06318634878374602,
        -0.05151239944968716,
        -0.0416768755396016,
        -0.11704701498871933,
        -0.08771598453003712,
        -0.04822800993756043,
        -0.048214111661892156,
        -0.05091164951637465,
        0.12114369345201266,
        -0.04589971112946458,
        -0.048214111661892156,
        0.28469238982074474,
        -0.03829758875094417,
        -0.061967444816028165,
        -0.05608200816890823,
        -0.05608200816890823,
        0.04403593408401803,
        -0.061967444816028165,
        -0.054445567987689965,
        -0.14078270012284502,
        0.3571413653546242,
        -0.054445567987689965,
        -0.04155022165383688,
        -0.05399304909681294,
        -0.05399304909681294,
        0.27305544341096843,
        -0.053791034408539946,
        -0.053791034408539946,
        -0.09860819063114715,
        -0.09860819063114715,
        -0.05091164951637465,
        -0.05091164951637465,
        -0.04589971112946458,
        -0.04589971112946458,
        -0.04822800993756043,
        -0.04822800993756043,
        0.28469238982074474,
        0.28469238982074474,
        0.20970302435602456,
        -0.054127747776612195,
        0.28469238982074474,
        -0.04175293948546659,
        -0.04175293948546659,
        -0.15117200844316184,
        -0.0899169157688182,
        0.27305544341096843,
        0.27305544341096843,
        -0.0416768755396016,
        -0.0416768755396016,
        -0.044050359344149935,
        -0.044050359344149935,
        -0.04156042438615497,
        -0.04156042438615497,
        -0.05091164951637465,
        -0.07867876225818915,
        0.37562656493957003,
        0.37562656493957003,
        -0.05814292744180794,
        -0.11365153650771095,
        -0.047229587522376965,
        -0.03898995540580036,
        -0.04822800993756043,
        -0.048214111661892156,
        -0.048214111661892156,
        -0.05399304909681294,
        -0.05399304909681294,
        -0.044050359344149935,
        -0.044050359344149935,
        -0.052044013715569076,
        -0.052044013715569076,
        -0.051112231799751114,
        -0.051112231799751114,
        -0.03829758875094417,
        -0.03829758875094417,
        -0.053791034408539946,
        -0.053791034408539946,
        -0.05814292744180794,
        -0.05814292744180794,
        -0.04821388338076458,
        -0.04821388338076458,
        -0.04886479501091727,
        -0.04886479501091727,
        -0.049249749207164586,
        -0.049249749207164586,
        0.313685833172212,
        0.313685833172212,
        0.3506766859613707,
        -0.051112231799751114,
        -0.0660284906147566,
        -0.0660284906147566,
        -0.061653759544393005,
        -0.0392488167954115,
        -0.05091164951637465,
        -0.05091164951637465,
        -0.044050376440405,
        -0.044050376440405,
        -0.05091164951637465,
        -0.05091164951637465,
        -0.043810583258321434,
        -0.043810583258321434,
        0.313685833172212,
        -0.04821388338076458,
        -0.04821388338076458,
        -0.038670968421705025,
        0.6269430270339372,
        0.37562656493957003,
        0.313685833172212,
        -0.05151239944968716,
        -0.05151239944968716,
        0.3571413653546242,
        -0.044734257488284176,
        -0.1412103672279149,
        -0.10897818742510462,
        0.32917363371219516,
        0.32917363371219516,
        -0.07521494593011221,
        -0.0899169157688182,
        -0.0899169157688182,
        -0.04175293948546659,
        -0.13627561370781624,
        -0.04646227649405976,
        -0.04886479501091727,
        -0.10470173379227368,
        -0.10470173379227368,
        -0.04646227649405976,
        -0.04646227649405976,
        -0.044399869418771054,
        -0.044399869418771054,
        -0.05151239944968716,
        -0.13627561370781624,
        -0.062835468569067,
        -0.07828847296125246,
        -0.03829758875094417,
        -0.0392488167954115,
        0.3506766859613707,
        -0.04787156583387045,
        -0.08717424536309033,
        0.4284809233067062,
        -0.0731471077661427,
        -0.05091164951637465,
        -0.04589971112946458,
        -0.054127747776612195,
        -0.044050359344149935,
        -0.03829758875094417,
        -0.04886479501091727,
        -0.061653759544393005,
        -0.04646227649405976,
        -0.05091164951637465,
        -0.04156042438615497,
        -0.043810583258321434,
        -0.07277176931815951,
        0.6073148163376576,
        -0.05608200816890823,
        0.2148361398854994,
        0.3175697608117699,
        0.313685833172212,
        -0.054445567987689965,
        -0.054445567987689965,
        -0.22126551398608155,
        -0.04155022165383688,
        -0.04155022165383688,
        -0.048214111661892156,
        -0.0392488167954115,
        -0.043810583258321434,
        -0.04870000442250249,
        -0.044050376440405,
        -0.043810583258321434,
        -0.0660284906147566,
        -0.05091164951637465,
        -0.05091164951637465,
        -0.061653759544393005,
        -0.061653759544393005,
        -0.04870000442250249,
        -0.04870000442250249,
        -0.12145097420770554,
        -0.0580633348440825,
        -0.04156042438615497,
        -0.03898995540580036,
        -0.03898995540580036,
        -0.043810583258321434,
        -0.043810583258321434,
        0.32917363371219516,
        -0.20329982507394007,
        -0.06537891216510745,
        -0.12637842019526577,
        -0.054445567987689965,
        -0.11487447622098244,
        -0.04646227649405976,
        -0.08134013375618966,
        -0.13036676961493504,
        -0.0616953596861942,
        -0.08164052048540647,
        -0.0416768755396016,
        -0.044399869418771054,
        -0.044399869418771054,
        0.06586555158215485,
        0.27305544341096843,
        -0.06537891216510745
      ]
    ],
    "intercepts": [
      0.08532167662897072,
      -0.029596590562053868,
      0.05774978953190024,
      -0.019939471389597438,
      -0.09353540420921866
    ],
    "classes": [
      "router",
      "query",
      "editor",
      "research",
      "review"
    ]
  }
}